FANN_FLO_2.1
num_layers=3
learning_rate=0.700000
connection_rate=1.000000
network_type=0
learning_momentum=0.000000
training_algorithm=2
train_error_function=1
train_stop_function=1
cascade_output_change_fraction=0.010000
quickprop_decay=-0.000100
quickprop_mu=1.750000
rprop_increase_factor=1.200000
rprop_decrease_factor=0.500000
rprop_delta_min=0.000000
rprop_delta_max=50.000000
rprop_delta_zero=0.100000
cascade_output_stagnation_epochs=12
cascade_candidate_change_fraction=0.010000
cascade_candidate_stagnation_epochs=12
cascade_max_out_epochs=150
cascade_min_out_epochs=50
cascade_max_cand_epochs=150
cascade_min_cand_epochs=50
cascade_num_candidate_groups=2
bit_fail_limit=9.99999974737875163555e-05
cascade_candidate_limit=1.00000000000000000000e+03
cascade_weight_multiplier=4.00000005960464477539e-01
cascade_activation_functions_count=10
cascade_activation_functions=3 5 7 8 10 11 14 15 16 17 
cascade_activation_steepnesses_count=4
cascade_activation_steepnesses=2.50000000000000000000e-01 5.00000000000000000000e-01 7.50000000000000000000e-01 1.00000000000000000000e+00 
layer_sizes=5 8 3 
scale_included=0
neurons (num_inputs, activation_function, activation_steepness)=(0, 0, 0.00000000000000000000e+00) (0, 0, 0.00000000000000000000e+00) (0, 0, 0.00000000000000000000e+00) (0, 0, 0.00000000000000000000e+00) (0, 0, 0.00000000000000000000e+00) (5, 5, 1.00000000000000000000e+00) (5, 5, 1.00000000000000000000e+00) (5, 5, 1.00000000000000000000e+00) (5, 5, 1.00000000000000000000e+00) (5, 5, 1.00000000000000000000e+00) (5, 5, 1.00000000000000000000e+00) (5, 5, 1.00000000000000000000e+00) (0, 5, 1.00000000000000000000e+00) (8, 5, 1.00000000000000000000e+00) (8, 5, 1.00000000000000000000e+00) (0, 5, 1.00000000000000000000e+00) 
connections (connected_to_neuron, weight)=(0, 8.06299626827239990234e-01) (1, -4.83995485305786132812e+00) (2, 1.00377473831176757812e+01) (3, 1.49871362304687500000e+03) (4, 2.53089690208435058594e+00) (0, -6.00360259413719177246e-02) (1, -9.27036464214324951172e-01) (2, -2.58579611778259277344e+00) (3, 4.21360999345779418945e-01) (4, -1.07835018634796142578e+00) (0, -4.04948264360427856445e-01) (1, 6.65747880935668945312e-01) (2, -2.55294770002365112305e-01) (3, 2.68972367048263549805e-01) (4, 1.09138453006744384766e+00) (0, 3.49896931648254394531e+00) (1, -1.60690155029296875000e+01) (2, 7.07446670532226562500e+00) (3, 3.70632123947143554688e+00) (4, -4.49895411729812622070e-01) (0, -2.11727470159530639648e-01) (1, 7.41110563278198242188e-01) (2, 1.51639908552169799805e-01) (3, 1.94458395242691040039e-01) (4, 1.14366388320922851562e+00) (0, 5.27144312858581542969e-01) (1, -8.67743313312530517578e-01) (2, 1.78446662425994873047e+00) (3, -1.46090853214263916016e+00) (4, 2.58292889595031738281e+00) (0, 6.29640400409698486328e-01) (1, -4.13432407379150390625e+00) (2, -3.07682156562805175781e+00) (3, -5.55742263793945312500e-01) (4, 1.44948220252990722656e+00) (5, 1.41985738277435302734e+00) (6, 6.40785038471221923828e-01) (7, 5.59162235260009765625e+00) (8, -1.60085523128509521484e+00) (9, 1.93349635601043701172e+00) (10, 1.81154179573059082031e+00) (11, 2.95140051841735839844e+00) (12, 9.27540004253387451172e-01) (5, 6.19545519351959228516e-01) (6, 5.82401275634765625000e+00) (7, -4.08878296613693237305e-01) (8, 1.70893526077270507812e+00) (9, 5.26130020618438720703e-01) (10, 1.44169330596923828125e+00) (11, 8.84257033467292785645e-02) (12, 1.45151543617248535156e+00) 
