FANN_FLO_2.1
num_layers=3
learning_rate=0.700000
connection_rate=1.000000
network_type=0
learning_momentum=0.000000
training_algorithm=2
train_error_function=1
train_stop_function=1
cascade_output_change_fraction=0.010000
quickprop_decay=-0.000100
quickprop_mu=1.750000
rprop_increase_factor=1.200000
rprop_decrease_factor=0.500000
rprop_delta_min=0.000000
rprop_delta_max=50.000000
rprop_delta_zero=0.100000
cascade_output_stagnation_epochs=12
cascade_candidate_change_fraction=0.010000
cascade_candidate_stagnation_epochs=12
cascade_max_out_epochs=150
cascade_min_out_epochs=50
cascade_max_cand_epochs=150
cascade_min_cand_epochs=50
cascade_num_candidate_groups=2
bit_fail_limit=9.99999974737875163555e-05
cascade_candidate_limit=1.00000000000000000000e+03
cascade_weight_multiplier=4.00000005960464477539e-01
cascade_activation_functions_count=10
cascade_activation_functions=3 5 7 8 10 11 14 15 16 17 
cascade_activation_steepnesses_count=4
cascade_activation_steepnesses=2.50000000000000000000e-01 5.00000000000000000000e-01 7.50000000000000000000e-01 1.00000000000000000000e+00 
layer_sizes=5 4 3 
scale_included=0
neurons (num_inputs, activation_function, activation_steepness)=(0, 0, 0.00000000000000000000e+00) (0, 0, 0.00000000000000000000e+00) (0, 0, 0.00000000000000000000e+00) (0, 0, 0.00000000000000000000e+00) (0, 0, 0.00000000000000000000e+00) (5, 5, 1.00000000000000000000e+00) (5, 5, 1.00000000000000000000e+00) (5, 5, 1.00000000000000000000e+00) (0, 5, 1.00000000000000000000e+00) (4, 5, 1.00000000000000000000e+00) (4, 5, 1.00000000000000000000e+00) (0, 5, 1.00000000000000000000e+00) 
connections (connected_to_neuron, weight)=(0, 2.41851898193359375000e+02) (1, 1.30584936523437500000e+03) (2, -1.50000000000000000000e+03) (3, -3.12105804443359375000e+02) (4, 9.54387130737304687500e+01) (0, -1.65315971374511718750e+01) (1, -1.13889358520507812500e+02) (2, -7.59919204711914062500e+01) (3, 5.90774459838867187500e+01) (4, 1.62296173095703125000e+02) (0, -1.31208784878253936768e-02) (1, -4.87417840957641601562e+00) (2, -3.62801814079284667969e+00) (3, 1.35003626346588134766e+00) (4, 9.37896132469177246094e-01) (5, 1.83074033260345458984e+00) (6, 1.98389315605163574219e+00) (7, -1.51134446263313293457e-01) (8, -4.74773440510034561157e-03) (5, -9.39837098121643066406e-02) (6, -3.00488364882767200470e-03) (7, 2.26640534400939941406e+00) (8, 2.33180546760559082031e+00) 
