FANN_FLO_2.1
num_layers=3
learning_rate=0.700000
connection_rate=1.000000
network_type=0
learning_momentum=0.000000
training_algorithm=2
train_error_function=1
train_stop_function=1
cascade_output_change_fraction=0.010000
quickprop_decay=-0.000100
quickprop_mu=1.750000
rprop_increase_factor=1.200000
rprop_decrease_factor=0.500000
rprop_delta_min=0.000000
rprop_delta_max=50.000000
rprop_delta_zero=0.100000
cascade_output_stagnation_epochs=12
cascade_candidate_change_fraction=0.010000
cascade_candidate_stagnation_epochs=12
cascade_max_out_epochs=150
cascade_min_out_epochs=50
cascade_max_cand_epochs=150
cascade_min_cand_epochs=50
cascade_num_candidate_groups=2
bit_fail_limit=9.99999974737875163555e-05
cascade_candidate_limit=1.00000000000000000000e+03
cascade_weight_multiplier=4.00000005960464477539e-01
cascade_activation_functions_count=10
cascade_activation_functions=3 5 7 8 10 11 14 15 16 17 
cascade_activation_steepnesses_count=4
cascade_activation_steepnesses=2.50000000000000000000e-01 5.00000000000000000000e-01 7.50000000000000000000e-01 1.00000000000000000000e+00 
layer_sizes=5 8 3 
scale_included=0
neurons (num_inputs, activation_function, activation_steepness)=(0, 0, 0.00000000000000000000e+00) (0, 0, 0.00000000000000000000e+00) (0, 0, 0.00000000000000000000e+00) (0, 0, 0.00000000000000000000e+00) (0, 0, 0.00000000000000000000e+00) (5, 5, 1.00000000000000000000e+00) (5, 5, 1.00000000000000000000e+00) (5, 5, 1.00000000000000000000e+00) (5, 5, 1.00000000000000000000e+00) (5, 5, 1.00000000000000000000e+00) (5, 5, 1.00000000000000000000e+00) (5, 5, 1.00000000000000000000e+00) (0, 5, 1.00000000000000000000e+00) (8, 5, 1.00000000000000000000e+00) (8, 5, 1.00000000000000000000e+00) (0, 5, 1.00000000000000000000e+00) 
connections (connected_to_neuron, weight)=(0, 6.95995569229125976562e-01) (1, 2.08583307266235351562e+00) (2, 2.49461555480957031250e+00) (3, -6.16187095642089843750e-01) (4, 1.70389604568481445312e+00) (0, 1.34326145052909851074e-01) (1, 2.38018655776977539062e+00) (2, 5.19573509693145751953e-01) (3, -6.82195782661437988281e-01) (4, -1.78934708237648010254e-01) (0, 1.57245838642120361328e+00) (1, 2.55740106105804443359e-01) (2, -2.98241049051284790039e-01) (3, -5.18363192677497863770e-02) (4, -7.22804641723632812500e+00) (0, 1.49955578613281250000e+03) (1, -1.35428308105468750000e+03) (2, 1.50000000000000000000e+03) (3, 1.49808544921875000000e+03) (4, 4.12191581726074218750e+01) (0, 2.02178478240966796875e-01) (1, -6.38597965240478515625e+00) (2, -4.06080818176269531250e+00) (3, 2.69169628620147705078e-01) (4, 4.82314258813858032227e-01) (0, 1.11237144470214843750e+02) (1, 1.50000000000000000000e+03) (2, -5.59217300415039062500e+01) (3, -1.89032485961914062500e+02) (4, 3.29229027032852172852e-01) (0, -3.94222550094127655029e-02) (1, -3.00652235746383666992e-01) (2, 7.64459490776062011719e-01) (3, 3.53751778602600097656e-01) (4, 2.18169450759887695312e+00) (5, 1.99290707707405090332e-01) (6, -1.52731508016586303711e-01) (7, -2.45133948326110839844e+00) (8, 9.36479210853576660156e-01) (9, 2.03899645805358886719e+00) (10, 2.17027926445007324219e+00) (11, 3.43163520097732543945e-01) (12, 9.49415981769561767578e-01) (5, 6.18332147598266601562e-01) (6, 9.52671647071838378906e-01) (7, -1.32502410560846328735e-02) (8, 7.53340303897857666016e-01) (9, 4.27162694931030273438e+00) (10, 1.92635282874107360840e-01) (11, 1.25155007839202880859e+00) (12, 5.67990601062774658203e-01) 
