FANN_FLO_2.1
num_layers=3
learning_rate=0.700000
connection_rate=1.000000
network_type=0
learning_momentum=0.000000
training_algorithm=2
train_error_function=1
train_stop_function=1
cascade_output_change_fraction=0.010000
quickprop_decay=-0.000100
quickprop_mu=1.750000
rprop_increase_factor=1.200000
rprop_decrease_factor=0.500000
rprop_delta_min=0.000000
rprop_delta_max=50.000000
rprop_delta_zero=0.100000
cascade_output_stagnation_epochs=12
cascade_candidate_change_fraction=0.010000
cascade_candidate_stagnation_epochs=12
cascade_max_out_epochs=150
cascade_min_out_epochs=50
cascade_max_cand_epochs=150
cascade_min_cand_epochs=50
cascade_num_candidate_groups=2
bit_fail_limit=9.99999974737875163555e-05
cascade_candidate_limit=1.00000000000000000000e+03
cascade_weight_multiplier=4.00000005960464477539e-01
cascade_activation_functions_count=10
cascade_activation_functions=3 5 7 8 10 11 14 15 16 17 
cascade_activation_steepnesses_count=4
cascade_activation_steepnesses=2.50000000000000000000e-01 5.00000000000000000000e-01 7.50000000000000000000e-01 1.00000000000000000000e+00 
layer_sizes=5 4 3 
scale_included=0
neurons (num_inputs, activation_function, activation_steepness)=(0, 0, 0.00000000000000000000e+00) (0, 0, 0.00000000000000000000e+00) (0, 0, 0.00000000000000000000e+00) (0, 0, 0.00000000000000000000e+00) (0, 0, 0.00000000000000000000e+00) (5, 5, 1.00000000000000000000e+00) (5, 5, 1.00000000000000000000e+00) (5, 5, 1.00000000000000000000e+00) (0, 5, 1.00000000000000000000e+00) (4, 5, 1.00000000000000000000e+00) (4, 5, 1.00000000000000000000e+00) (0, 5, 1.00000000000000000000e+00) 
connections (connected_to_neuron, weight)=(0, 2.15051528930664062500e+02) (1, 1.50000000000000000000e+03) (2, -1.50000000000000000000e+03) (3, -7.71216735839843750000e+02) (4, 1.33872766113281250000e+03) (0, -3.02306443452835083008e-01) (1, -2.43938970565795898438e+00) (2, -2.12464690208435058594e+00) (3, 8.63288819789886474609e-01) (4, 8.18797051906585693359e-01) (0, -1.11931610107421875000e+00) (1, -3.02975702285766601562e+00) (2, 4.08763259649276733398e-01) (3, 4.92579966783523559570e-01) (4, 6.28918123245239257812e+00) (5, 2.60016202926635742188e+00) (6, 5.91080367565155029297e-01) (7, 2.04920482635498046875e+00) (8, -6.36227987706661224365e-03) (5, 4.84220087528228759766e-01) (6, 3.07994151115417480469e+00) (7, -4.65482100844383239746e-02) (8, 2.53231930732727050781e+00) 
