FANN_FLO_2.1
num_layers=3
learning_rate=0.700000
connection_rate=1.000000
network_type=0
learning_momentum=0.000000
training_algorithm=2
train_error_function=1
train_stop_function=1
cascade_output_change_fraction=0.010000
quickprop_decay=-0.000100
quickprop_mu=1.750000
rprop_increase_factor=1.200000
rprop_decrease_factor=0.500000
rprop_delta_min=0.000000
rprop_delta_max=50.000000
rprop_delta_zero=0.100000
cascade_output_stagnation_epochs=12
cascade_candidate_change_fraction=0.010000
cascade_candidate_stagnation_epochs=12
cascade_max_out_epochs=150
cascade_min_out_epochs=50
cascade_max_cand_epochs=150
cascade_min_cand_epochs=50
cascade_num_candidate_groups=2
bit_fail_limit=9.99999974737875163555e-05
cascade_candidate_limit=1.00000000000000000000e+03
cascade_weight_multiplier=4.00000005960464477539e-01
cascade_activation_functions_count=10
cascade_activation_functions=3 5 7 8 10 11 14 15 16 17 
cascade_activation_steepnesses_count=4
cascade_activation_steepnesses=2.50000000000000000000e-01 5.00000000000000000000e-01 7.50000000000000000000e-01 1.00000000000000000000e+00 
layer_sizes=5 4 3 
scale_included=0
neurons (num_inputs, activation_function, activation_steepness)=(0, 0, 0.00000000000000000000e+00) (0, 0, 0.00000000000000000000e+00) (0, 0, 0.00000000000000000000e+00) (0, 0, 0.00000000000000000000e+00) (0, 0, 0.00000000000000000000e+00) (5, 5, 1.00000000000000000000e+00) (5, 5, 1.00000000000000000000e+00) (5, 5, 1.00000000000000000000e+00) (0, 5, 1.00000000000000000000e+00) (4, 5, 1.00000000000000000000e+00) (4, 5, 1.00000000000000000000e+00) (0, 5, 1.00000000000000000000e+00) 
connections (connected_to_neuron, weight)=(0, -1.71659584045410156250e+01) (1, -1.50000000000000000000e+03) (2, -1.30134729003906250000e+03) (3, 1.50000000000000000000e+03) (4, 3.99757423400878906250e+01) (0, -1.76846671104431152344e+00) (1, -1.46878528594970703125e+00) (2, -1.47402298450469970703e+00) (3, 1.45888543128967285156e+00) (4, 8.81653785705566406250e+00) (0, 4.65286315917968750000e+02) (1, 1.50000000000000000000e+03) (2, -1.50000000000000000000e+03) (3, -7.86625061035156250000e+02) (4, 4.15713500976562500000e+02) (5, -1.53735065460205078125e+00) (6, 2.70563292503356933594e+00) (7, 1.14183270931243896484e+00) (8, 7.95895699411630630493e-03) (5, 3.87202644348144531250e+00) (6, 5.17101550940424203873e-04) (7, 1.08003628253936767578e+00) (8, 2.79170823097229003906e+00) 
