FANN_FLO_2.1
num_layers=3
learning_rate=0.700000
connection_rate=1.000000
network_type=0
learning_momentum=0.000000
training_algorithm=2
train_error_function=1
train_stop_function=1
cascade_output_change_fraction=0.010000
quickprop_decay=-0.000100
quickprop_mu=1.750000
rprop_increase_factor=1.200000
rprop_decrease_factor=0.500000
rprop_delta_min=0.000000
rprop_delta_max=50.000000
rprop_delta_zero=0.100000
cascade_output_stagnation_epochs=12
cascade_candidate_change_fraction=0.010000
cascade_candidate_stagnation_epochs=12
cascade_max_out_epochs=150
cascade_min_out_epochs=50
cascade_max_cand_epochs=150
cascade_min_cand_epochs=50
cascade_num_candidate_groups=2
bit_fail_limit=9.99999974737875163555e-05
cascade_candidate_limit=1.00000000000000000000e+03
cascade_weight_multiplier=4.00000005960464477539e-01
cascade_activation_functions_count=10
cascade_activation_functions=3 5 7 8 10 11 14 15 16 17 
cascade_activation_steepnesses_count=4
cascade_activation_steepnesses=2.50000000000000000000e-01 5.00000000000000000000e-01 7.50000000000000000000e-01 1.00000000000000000000e+00 
layer_sizes=5 4 3 
scale_included=0
neurons (num_inputs, activation_function, activation_steepness)=(0, 0, 0.00000000000000000000e+00) (0, 0, 0.00000000000000000000e+00) (0, 0, 0.00000000000000000000e+00) (0, 0, 0.00000000000000000000e+00) (0, 0, 0.00000000000000000000e+00) (5, 5, 1.00000000000000000000e+00) (5, 5, 1.00000000000000000000e+00) (5, 5, 1.00000000000000000000e+00) (0, 5, 1.00000000000000000000e+00) (4, 5, 1.00000000000000000000e+00) (4, 5, 1.00000000000000000000e+00) (0, 5, 1.00000000000000000000e+00) 
connections (connected_to_neuron, weight)=(0, 4.27709251642227172852e-01) (1, 3.01059079170227050781e+00) (2, 2.58192360401153564453e-01) (3, 8.82818102836608886719e-01) (4, -3.01867699623107910156e+00) (0, -5.37438452243804931641e-01) (1, -1.97894179821014404297e+00) (2, -2.35151857137680053711e-01) (3, 3.35633963346481323242e-01) (4, 2.30545520782470703125e+00) (0, 1.59785509109497070312e+01) (1, 3.35022216796875000000e+02) (2, 3.07445037841796875000e+02) (3, 2.36843376159667968750e+01) (4, -1.03645572662353515625e+01) (5, -2.21887373924255371094e+00) (6, 5.38547182083129882812e+00) (7, 5.32916307449340820312e+00) (8, 2.16860079765319824219e+00) (5, 1.47740852832794189453e+00) (6, 3.85997962951660156250e+00) (7, 6.74679994583129882812e-01) (8, 1.68925929069519042969e+00) 
