FANN_FLO_2.1
num_layers=3
learning_rate=0.700000
connection_rate=1.000000
network_type=0
learning_momentum=0.000000
training_algorithm=2
train_error_function=1
train_stop_function=1
cascade_output_change_fraction=0.010000
quickprop_decay=-0.000100
quickprop_mu=1.750000
rprop_increase_factor=1.200000
rprop_decrease_factor=0.500000
rprop_delta_min=0.000000
rprop_delta_max=50.000000
rprop_delta_zero=0.100000
cascade_output_stagnation_epochs=12
cascade_candidate_change_fraction=0.010000
cascade_candidate_stagnation_epochs=12
cascade_max_out_epochs=150
cascade_min_out_epochs=50
cascade_max_cand_epochs=150
cascade_min_cand_epochs=50
cascade_num_candidate_groups=2
bit_fail_limit=9.99999974737875163555e-05
cascade_candidate_limit=1.00000000000000000000e+03
cascade_weight_multiplier=4.00000005960464477539e-01
cascade_activation_functions_count=10
cascade_activation_functions=3 5 7 8 10 11 14 15 16 17 
cascade_activation_steepnesses_count=4
cascade_activation_steepnesses=2.50000000000000000000e-01 5.00000000000000000000e-01 7.50000000000000000000e-01 1.00000000000000000000e+00 
layer_sizes=4 8 3 
scale_included=0
neurons (num_inputs, activation_function, activation_steepness)=(0, 0, 0.00000000000000000000e+00) (0, 0, 0.00000000000000000000e+00) (0, 0, 0.00000000000000000000e+00) (0, 0, 0.00000000000000000000e+00) (4, 5, 1.00000000000000000000e+00) (4, 5, 1.00000000000000000000e+00) (4, 5, 1.00000000000000000000e+00) (4, 5, 1.00000000000000000000e+00) (4, 5, 1.00000000000000000000e+00) (4, 5, 1.00000000000000000000e+00) (4, 5, 1.00000000000000000000e+00) (0, 5, 1.00000000000000000000e+00) (8, 5, 1.00000000000000000000e+00) (8, 5, 1.00000000000000000000e+00) (0, 5, 1.00000000000000000000e+00) 
connections (connected_to_neuron, weight)=(0, 1.39086723327636718750e-01) (1, 1.21808671951293945312e+00) (2, 1.35653930664062500000e+03) (3, 3.51157397031784057617e-01) (0, -2.22193956375122070312e-01) (1, 5.29759824275970458984e-01) (2, -1.49781513214111328125e+00) (3, 1.03803050518035888672e+00) (0, 2.31818735599517822266e-01) (1, 9.98624503612518310547e-01) (2, 1.42671704101562500000e+03) (3, 1.50846552848815917969e+00) (0, 2.20818057656288146973e-01) (1, 1.02063012123107910156e+00) (2, 1.33803796386718750000e+03) (3, 1.75758290290832519531e+00) (0, -1.56475901603698730469e-01) (1, -2.01171159744262695312e+00) (2, 1.14783585071563720703e+00) (3, 1.01654481887817382812e+00) (0, 4.50379788875579833984e-01) (1, 1.62932217121124267578e+00) (2, 2.96047091484069824219e+00) (3, -2.29498648643493652344e+00) (0, 1.15917770385742187500e+02) (1, -1.49999780273437500000e+03) (2, 4.49469476938247680664e-01) (3, -3.44441652297973632812e-01) (4, 3.96659523248672485352e-01) (5, 1.50141048431396484375e+00) (6, 4.95558559894561767578e-01) (7, 4.57143902778625488281e-01) (8, 2.92665123939514160156e+00) (9, -1.57850813865661621094e+00) (10, -1.91022336483001708984e+00) (11, 7.14386105537414550781e-01) (4, 6.97943866252899169922e-01) (5, 1.49109113216400146484e+00) (6, 6.02690100669860839844e-01) (7, 6.22715950012207031250e-01) (8, 2.50843334197998046875e+00) (9, 1.98877763748168945312e+00) (10, 1.81059038639068603516e+00) (11, 1.20761908590793609619e-01) 
