FANN_FLO_2.1
num_layers=3
learning_rate=0.700000
connection_rate=1.000000
network_type=0
learning_momentum=0.000000
training_algorithm=2
train_error_function=1
train_stop_function=1
cascade_output_change_fraction=0.010000
quickprop_decay=-0.000100
quickprop_mu=1.750000
rprop_increase_factor=1.200000
rprop_decrease_factor=0.500000
rprop_delta_min=0.000000
rprop_delta_max=50.000000
rprop_delta_zero=0.100000
cascade_output_stagnation_epochs=12
cascade_candidate_change_fraction=0.010000
cascade_candidate_stagnation_epochs=12
cascade_max_out_epochs=150
cascade_min_out_epochs=50
cascade_max_cand_epochs=150
cascade_min_cand_epochs=50
cascade_num_candidate_groups=2
bit_fail_limit=9.99999974737875163555e-05
cascade_candidate_limit=1.00000000000000000000e+03
cascade_weight_multiplier=4.00000005960464477539e-01
cascade_activation_functions_count=10
cascade_activation_functions=3 5 7 8 10 11 14 15 16 17 
cascade_activation_steepnesses_count=4
cascade_activation_steepnesses=2.50000000000000000000e-01 5.00000000000000000000e-01 7.50000000000000000000e-01 1.00000000000000000000e+00 
layer_sizes=5 4 3 
scale_included=0
neurons (num_inputs, activation_function, activation_steepness)=(0, 0, 0.00000000000000000000e+00) (0, 0, 0.00000000000000000000e+00) (0, 0, 0.00000000000000000000e+00) (0, 0, 0.00000000000000000000e+00) (0, 0, 0.00000000000000000000e+00) (5, 5, 1.00000000000000000000e+00) (5, 5, 1.00000000000000000000e+00) (5, 5, 1.00000000000000000000e+00) (0, 5, 1.00000000000000000000e+00) (4, 5, 1.00000000000000000000e+00) (4, 5, 1.00000000000000000000e+00) (0, 5, 1.00000000000000000000e+00) 
connections (connected_to_neuron, weight)=(0, 1.58875411987304687500e+02) (1, -4.04830703735351562500e+01) (2, 1.50000000000000000000e+03) (3, 1.50000000000000000000e+03) (4, -2.15581893920898437500e+02) (0, -1.12200319766998291016e+00) (1, -2.78168654441833496094e+00) (2, -2.88091802597045898438e+00) (3, 1.38683795928955078125e+00) (4, 4.16971111297607421875e+00) (0, -8.95429313182830810547e-01) (1, -2.07541376352310180664e-01) (2, -7.08356678485870361328e-01) (3, 7.09299668669700622559e-02) (4, 3.73449635505676269531e+00) (5, 1.46302729845046997070e-01) (6, 1.29070570692420005798e-02) (7, 2.89544200897216796875e+00) (8, 2.67747521400451660156e+00) (5, -1.90615566680207848549e-04) (6, 2.86605381965637207031e+00) (7, -5.58121316134929656982e-02) (8, 2.81263279914855957031e+00) 
