FANN_FLO_2.1
num_layers=3
learning_rate=0.700000
connection_rate=1.000000
network_type=0
learning_momentum=0.000000
training_algorithm=2
train_error_function=1
train_stop_function=1
cascade_output_change_fraction=0.010000
quickprop_decay=-0.000100
quickprop_mu=1.750000
rprop_increase_factor=1.200000
rprop_decrease_factor=0.500000
rprop_delta_min=0.000000
rprop_delta_max=50.000000
rprop_delta_zero=0.100000
cascade_output_stagnation_epochs=12
cascade_candidate_change_fraction=0.010000
cascade_candidate_stagnation_epochs=12
cascade_max_out_epochs=150
cascade_min_out_epochs=50
cascade_max_cand_epochs=150
cascade_min_cand_epochs=50
cascade_num_candidate_groups=2
bit_fail_limit=9.99999974737875163555e-05
cascade_candidate_limit=1.00000000000000000000e+03
cascade_weight_multiplier=4.00000005960464477539e-01
cascade_activation_functions_count=10
cascade_activation_functions=3 5 7 8 10 11 14 15 16 17 
cascade_activation_steepnesses_count=4
cascade_activation_steepnesses=2.50000000000000000000e-01 5.00000000000000000000e-01 7.50000000000000000000e-01 1.00000000000000000000e+00 
layer_sizes=5 4 3 
scale_included=0
neurons (num_inputs, activation_function, activation_steepness)=(0, 0, 0.00000000000000000000e+00) (0, 0, 0.00000000000000000000e+00) (0, 0, 0.00000000000000000000e+00) (0, 0, 0.00000000000000000000e+00) (0, 0, 0.00000000000000000000e+00) (5, 5, 1.00000000000000000000e+00) (5, 5, 1.00000000000000000000e+00) (5, 5, 1.00000000000000000000e+00) (0, 5, 1.00000000000000000000e+00) (4, 5, 1.00000000000000000000e+00) (4, 5, 1.00000000000000000000e+00) (0, 5, 1.00000000000000000000e+00) 
connections (connected_to_neuron, weight)=(0, -2.12252578735351562500e+01) (1, 8.06953964233398437500e+01) (2, 4.13019895553588867188e+00) (3, 5.33918619155883789062e+00) (4, 5.42895126342773437500e+01) (0, -2.69458323717117309570e-01) (1, -5.51086604595184326172e-01) (2, -9.77542936801910400391e-01) (3, 1.18576145172119140625e+00) (4, -5.57757794857025146484e-01) (0, 5.03011345863342285156e-01) (1, -3.29591393470764160156e+00) (2, -4.90348458290100097656e-01) (3, -1.10551190376281738281e+00) (4, 1.60641598701477050781e+00) (5, 7.06026268005371093750e+00) (6, -1.50535181164741516113e-02) (7, 2.18286418914794921875e+00) (8, 4.91798830032348632812e+00) (5, -1.76219772547483444214e-02) (6, 3.08987903594970703125e+00) (7, 2.57324427366256713867e-01) (8, 2.78028202056884765625e+00) 
